digraph Tree {
node [shape=box, style="filled, rounded", color="black", fontname=helvetica] ;
edge [fontname=helvetica] ;
0 [label="hisgoal_dist <= 60.2985\ngini = 0.434\nsamples = 328\nvalue = [6, 7, 239, 58, 18]\nclass = finition", fillcolor="#39e5c5ab"] ;
1 [label="mygoal_dist <= 147.5729\ngini = 0.2189\nsamples = 260\nvalue = [4, 7, 229, 3, 17]\nclass = finition", fillcolor="#39e5c5de"] ;
0 -> 1 [labeldistance=2.5, labelangle=45, headlabel="True"] ;
2 [label="mygoal_dist <= 116.7579\ngini = 0.2047\nsamples = 252\nvalue = [4, 4, 224, 3, 17]\nclass = finition", fillcolor="#39e5c5e1"] ;
1 -> 2 ;
3 [label="ball_dist <= 23.3388\ngini = 0.0694\nsamples = 84\nvalue = [1, 0, 81, 0, 2]\nclass = finition", fillcolor="#39e5c5f6"] ;
2 -> 3 ;
4 [label="ball_dist <= 7.149\ngini = 0.0487\nsamples = 80\nvalue = [0, 0, 78, 0, 2]\nclass = finition", fillcolor="#39e5c5f8"] ;
3 -> 4 ;
5 [label="gini = 0.1023\nsamples = 37\nvalue = [0, 0, 35, 0, 2]\nclass = finition", fillcolor="#39e5c5f0"] ;
4 -> 5 ;
6 [label="gini = 0.0\nsamples = 43\nvalue = [0, 0, 43, 0, 0]\nclass = finition", fillcolor="#39e5c5ff"] ;
4 -> 6 ;
7 [label="ball_dist <= 25.7518\ngini = 0.375\nsamples = 4\nvalue = [1, 0, 3, 0, 0]\nclass = finition", fillcolor="#39e5c5aa"] ;
3 -> 7 ;
8 [label="gini = 0.5\nsamples = 2\nvalue = [1, 0, 1, 0, 0]\nclass = conserver", fillcolor="#e5813900"] ;
7 -> 8 ;
9 [label="gini = 0.0\nsamples = 2\nvalue = [0, 0, 2, 0, 0]\nclass = finition", fillcolor="#39e5c5ff"] ;
7 -> 9 ;
10 [label="hisgoal_dist <= 41.5446\ngini = 0.2663\nsamples = 168\nvalue = [3, 4, 143, 3, 15]\nclass = finition", fillcolor="#39e5c5d5"] ;
2 -> 10 ;
11 [label="ball_dist <= 18.3361\ngini = 0.2489\nsamples = 166\nvalue = [3, 3, 143, 2, 15]\nclass = finition", fillcolor="#39e5c5d8"] ;
10 -> 11 ;
12 [label="gini = 0.2187\nsamples = 158\nvalue = [2, 3, 139, 1, 13]\nclass = finition", fillcolor="#39e5c5de"] ;
11 -> 12 ;
13 [label="gini = 0.6563\nsamples = 8\nvalue = [1, 0, 4, 1, 2]\nclass = finition", fillcolor="#39e5c555"] ;
11 -> 13 ;
14 [label="gini = 0.5\nsamples = 2\nvalue = [0, 1, 0, 1, 0]\nclass = dribbler", fillcolor="#7be53900"] ;
10 -> 14 ;
15 [label="hisgoal_dist <= 42.7229\ngini = 0.4688\nsamples = 8\nvalue = [0, 3, 5, 0, 0]\nclass = finition", fillcolor="#39e5c566"] ;
1 -> 15 ;
16 [label="gini = 0.0\nsamples = 5\nvalue = [0, 0, 5, 0, 0]\nclass = finition", fillcolor="#39e5c5ff"] ;
15 -> 16 ;
17 [label="gini = 0.0\nsamples = 3\nvalue = [0, 3, 0, 0, 0]\nclass = dribbler", fillcolor="#7be539ff"] ;
15 -> 17 ;
18 [label="ball_dist <= 42.2196\ngini = 0.3231\nsamples = 68\nvalue = [2, 0, 10, 55, 1]\nclass = position", fillcolor="#3c39e5c6"] ;
0 -> 18 [labeldistance=2.5, labelangle=-45, headlabel="False"] ;
19 [label="ball_dist <= 29.8483\ngini = 0.2749\nsamples = 64\nvalue = [2, 0, 7, 54, 1]\nclass = position", fillcolor="#3c39e5d2"] ;
18 -> 19 ;
20 [label="hisgoal_dist <= 95.0163\ngini = 0.0713\nsamples = 27\nvalue = [1, 0, 0, 26, 0]\nclass = position", fillcolor="#3c39e5f5"] ;
19 -> 20 ;
21 [label="gini = 0.0\nsamples = 25\nvalue = [0, 0, 0, 25, 0]\nclass = position", fillcolor="#3c39e5ff"] ;
20 -> 21 ;
22 [label="gini = 0.5\nsamples = 2\nvalue = [1, 0, 0, 1, 0]\nclass = conserver", fillcolor="#e5813900"] ;
20 -> 22 ;
23 [label="ball_dist <= 32.1801\ngini = 0.3901\nsamples = 37\nvalue = [1, 0, 7, 28, 1]\nclass = position", fillcolor="#3c39e5b2"] ;
19 -> 23 ;
24 [label="mygoal_dist <= 79.6382\ngini = 0.58\nsamples = 10\nvalue = [0, 0, 5, 4, 1]\nclass = finition", fillcolor="#39e5c52a"] ;
23 -> 24 ;
25 [label="gini = 0.2778\nsamples = 6\nvalue = [0, 0, 5, 0, 1]\nclass = finition", fillcolor="#39e5c5cc"] ;
24 -> 25 ;
26 [label="gini = 0.0\nsamples = 4\nvalue = [0, 0, 0, 4, 0]\nclass = position", fillcolor="#3c39e5ff"] ;
24 -> 26 ;
27 [label="hisgoal_dist <= 69.7734\ngini = 0.203\nsamples = 27\nvalue = [1, 0, 2, 24, 0]\nclass = position", fillcolor="#3c39e5e0"] ;
23 -> 27 ;
28 [label="gini = 0.5\nsamples = 4\nvalue = [0, 0, 2, 2, 0]\nclass = finition", fillcolor="#39e5c500"] ;
27 -> 28 ;
29 [label="gini = 0.0832\nsamples = 23\nvalue = [1, 0, 0, 22, 0]\nclass = position", fillcolor="#3c39e5f3"] ;
27 -> 29 ;
30 [label="ball_dist <= 47.2349\ngini = 0.375\nsamples = 4\nvalue = [0, 0, 3, 1, 0]\nclass = finition", fillcolor="#39e5c5aa"] ;
18 -> 30 ;
31 [label="gini = 0.0\nsamples = 2\nvalue = [0, 0, 2, 0, 0]\nclass = finition", fillcolor="#39e5c5ff"] ;
30 -> 31 ;
32 [label="gini = 0.5\nsamples = 2\nvalue = [0, 0, 1, 1, 0]\nclass = finition", fillcolor="#39e5c500"] ;
30 -> 32 ;
}